0.11346 0.04938 -0.60938 -0.67139 -1.47070 -0.83740 -2.18164 0.96777 0.03436 -0.12866 -1.27441 -1.15332 -0.85254 -0.15381 -0.42358 0.86084 -0.00831 -0.57422 0.56592 -0.16846 -0.14197 -0.42163 0.52783 -0.10315 0.02483 0.38745 0.53027 -0.46826 -0.67676 -0.15417 1.15625 0.00417 -0.07196 0.30273 -0.04443 0.70557 0.99707 -0.53516 -0.19482 0.07904 -0.05725 -0.25830 2.31445 2.24414 0.68555 -0.74219 -0.55225 0.11664 -0.06622 0.50977 0.59473 1.30371 0.67627 1.64551 0.26636 0.44946 0.09113 -0.00078 -0.58643 -0.45459 2.57812 1.75684 1.30176 0.90918
-0.09937 -0.00195 -1.33789 0.69873 -0.06909 -0.55713 1.34961 0.86768 -0.09528 0.39941 0.03546 -0.02039 0.76709 -0.43970 0.05701 -0.02724 -0.06036 -1.36133 -0.17407 -0.01154 -2.10156 -0.24487 -0.75293 0.03452 -0.01903 -0.29321 0.18445 -2.43750 -2.14062 -0.16626 4.50781 -0.02739 -0.11761 1.13770 2.35352 -0.07422 0.35962 1.20215 1.32520 0.04865 0.04080 2.04883 2.44336 0.74023 0.32617 0.27734 0.74316 -0.01714 -0.01633 0.20081 -0.74902 1.74609 -0.42847 0.54395 -0.53271 -0.17676 0.06323 -0.21790 0.77344 -0.46558 -1.20117 -0.55713 -0.66699 -0.37085
-0.00962 -0.05368 0.26562 0.55566 0.04770 -0.48267 1.16797 -0.01275 -0.08411 0.54248 0.65771 -0.11035 0.34155 0.15369 -0.02936 0.02759 0.11584 0.00439 0.05743 -1.33691 -0.43457 0.64355 -0.12292 -0.08966 -0.02228 -0.79492 -0.13208 -1.50879 -1.01367 -0.65186 0.07251 -0.02141 -0.09106 -0.60059 -0.03363 -0.27563 -0.88721 -0.90918 -0.05042 -0.07495 0.05090 -1.27539 0.38574 -0.56250 -1.29980 0.07166 1.08008 -0.08344 0.11786 0.14221 -0.05258 0.94824 1.13770 1.05176 0.38379 -1.54395 0.00459 0.23779 1.02930 0.12915 2.55078 0.95459 1.05859 -1.97754
