-0.05417 0.07318 0.54102 0.39355 0.54102 -0.07660 0.04468 -0.28589 0.06274 0.08350 0.52393 0.18188 -0.03851 0.15662 -0.18848 -0.47070 -0.00758 0.13074 0.52539 -0.64111 -1.13867 0.92725 -0.56396 0.00143 -0.10663 -1.14844 0.32568 0.44751 -0.23291 -0.12170 -1.75098 0.09454 -0.04434 -0.73486 -0.36743 -0.47754 -1.04883 -1.32227 0.02441 0.02028 -0.11572 -2.58594 0.78857 -1.16211 -0.81445 0.28174 1.39941 0.11066 -0.10309 -0.51172 0.53369 -0.22412 1.15137 1.00586 0.37061 -1.23926 -0.08496 0.42676 0.56543 0.63867 1.94727 0.37549 0.76855 -2.37695
-0.08917 0.12244 -0.52588 -1.04883 -1.04883 -0.80469 -2.57227 0.35864 0.03632 -0.47559 -1.40820 -1.17188 -0.73779 -0.31519 -1.13184 0.73096 0.12317 -0.36108 0.59619 0.33960 0.33398 -0.13599 0.52490 0.12054 0.04465 -0.22913 0.77637 0.14258 -0.46997 0.20276 0.26514 0.04636 -0.08240 -0.01897 -0.15088 0.59521 0.58691 -0.76465 -0.15137 -0.01808 -0.07379 -0.43066 2.27930 1.87305 0.76953 -0.71143 -0.20728 -0.04950 0.09802 -0.39453 0.51172 0.56055 0.59375 1.19238 0.18262 0.43457 0.08228 0.03568 -0.86572 -0.38599 1.99121 0.93066 0.95410 1.37598
0.08655 -0.00606 -0.00699 0.83398 0.01160 0.33740 -1.06543 0.69580 0.01314 0.29956 0.71045 -0.47754 0.00937 0.51221 0.72607 -0.03278 -0.08368 0.19360 -1.66113 -1.76660 1.39062 0.37964 0.10339 -0.02914 0.04636 -0.41895 -1.39160 -0.48975 1.71680 0.43213 0.06021 0.03979 -0.02051 -1.04004 -0.67578 0.79053 0.21936 -0.34644 -0.22314 -0.07361 0.10980 -0.55762 -0.18274 1.10059 -0.22705 -0.36304 -0.90186 -0.08972 -0.02838 1.17773 0.32861 -0.17822 0.39648 0.24841 0.27148 0.18262 -0.08850 -0.00812 0.06360 -0.90918 0.54346 0.97754 1.01562 2.93945
